encog,BasicNetwork,java,3.3.0,1,1475767948562
[BASIC]
[BASIC:PARAMS]
[BASIC:NETWORK]
beginTraining=0
connectionLimit=0
contextTargetOffset=0,0
contextTargetSize=0,0
endTraining=1
hasContext=f
inputCount=784
layerCounts=2,785
layerFeedCounts=1,784
layerContextCount=0,0
layerIndex=0,2
output=0,1,0,0,0,0,0,0,0,0,0,0,0,0,0,0,0,0,0,0,0,0,0,0,0,0,0,0,0,0,0,0,0,0,0,0,0,0,0,0,0,0,0,0,0,0,0,0,0,0,0,0,0,0,0,0,0,0,0,0,0,0,0,0,0,0,0,0,0,0,0,0,0,0,0,0,0,0,0,0,0,0,0,0,0,0,0,0,0,0,0,0,0,0,0,0,0,0,0,0,0,0,0,0,0,0,0,0,0,0,0,0,0,0,0,0,0,0,0,0,0,0,0,0,0,0,0,0,0,0,0,0,0,0,0,0,0,0,0,0,0,0,0,0,0,0,0,0,0,0,0,0,0,0,0,0,0,0,0,0,0,0,0,0,0,0,0,0,0,0,0,0,0,0,0,0,0,0,0,0,0,0,0,0,0,0,0,0,0,0,0,0,0,0,0,0,0,0,0,0,0,0,0,0,0,0,0,0,0,0,0,0,0,0,0,0,0,0,0,0,0,0,0,0,0,0,0,0,0,0,0,0,0,0,0,0,0,0,0,0,0,0,0,0,0,0,0,0,0,0,0,0,0,0,0,0,0,0,0,0,0,0,0,0,0,0,0,0,0,0,0,0,0,0,0,0,0,0,0,0,0,0,0,0,0,0,0,0,0,0,0,0,0,0,0,0,0,0,0,0,0,0,0,0,0,0,0,0,0,0,0,0,0,0,0,0,0,0,0,0,0,0,0,0,0,0,0,0,0,0,0,0,0,0,0,0,0,0,0,0,0,0,0,0,0,0,0,0,0,0,0,0,0,0,0,0,0,0,0,0,0,0,0,0,0,0,0,0,0,0,0,0,0,0,0,0,0,0,0,0,0,0,0,0,0,0,0,0,0,0,0,0,0,0,0,0,0,0,0,0,0,0,0,0,0,0,0,0,0,0,0,0,0,0,0,0,0,0,0,0,0,0,0,0,0,0,0,0,0,0,0,0,0,0,0,0,0,0,0,0,0,0,0,0,0,0,0,0,0,0,0,0,0,0,0,0,0,0,0,0,0,0,0,0,0,0,0,0,0,0,0,0,0,0,0,0,0,0,0,0,0,0,0,0,0,0,0,0,0,0,0,0,0,0,0,0,0,0,0,0,0,0,0,0,0,0,0,0,0,0,0,0,0,0,0,0,0,0,0,0,0,0,0,0,0,0,0,0,0,0,0,0,0,0,0,0,0,0,0,0,0,0,0,0,0,0,0,0,0,0,0,0,0,0,0,0,0,0,0,0,0,0,0,0,0,0,0,0,0,0,0,0,0,0,0,0,0,0,0,0,0,0,0,0,0,0,0,0,0,0,0,0,0,0,0,0,0,0,0,0,0,0,0,0,0,0,0,0,0,0,0,0,0,0,0,0,0,0,0,0,0,0,0,0,0,0,0,0,0,0,0,0,0,0,0,0,0,0,0,0,0,0,0,0,0,0,0,0,0,0,0,0,0,0,0,0,0,0,0,0,0,0,0,0,0,0,0,0,0,0,0,0,0,0,0,0,0,0,0,0,0,0,0,0,0,0,0,0,0,0,0,0,0,0,0,0,0,0,0,0,0,0,0,0,0,0,0,0,0,0,0,0,0,0,0,0,0,0,0,0,0,0,0,0,0,0,0,0,0,0,0,0,0,0,0,0,0,0,0,0,0,0,0,0,0,0,0,0,0,0,0,0,0,0,0,0,0,0,0,0,0,0,0,0,0,0,0,0,0,0,0,0,0,0,0,0,0,0,0,0,0,0,0,0,0,0,1
outputCount=1
weightIndex=0,785
weights=0.3565935854,-0.4245435384,-0.8046062473,-0.1424521381,-0.4175845566,0.7263035065,-0.750380794,0.2995613769,-0.3342180575,0.2589115167,0.3474432984,-0.451642893,0.3151160702,-0.3491697213,0.5612159858,-0.2136714091,-0.4918507643,-0.5513273344,0.8475730347,-0.3155748693,0.9443719817,-0.5731702442,-0.1137920318,-0.5284969643,-0.1998031079,0.0226328949,0.3769455841,-0.0303939663,0.3867682724,-0.4521463259,0.7919944058,0.0922432215,0.0412819049,0.8808287517,-0.8792269127,-0.1295446232,0.5751510643,-0.4549839007,0.5668099481,-0.0019486821,-0.4544118237,0.9188806629,-0.2262521198,0.0380431654,0.7699358277,-0.3835860902,-0.7632855076,0.0095447818,-0.1453436437,0.2569130568,0.0583400046,0.2875110779,-0.3297154581,0.1524646216,-0.5805783618,-0.398798857,0.7966379753,-0.906268009,1.026850079,-0.3091928787,-0.8765555277,-0.038967292,0.0315740939,0.9697960287,-0.3796888247,0.7084184655,-0.8930001166,-0.3268756185,0.6051347381,-0.7822583029,0.6669454764,-1.1476846456,-0.1974891435,0.6334632858,-0.1153602211,0.5676990255,0.9589109491,-0.809771664,-0.0654607757,0.2586863133,0.434610225,0.3358245239,0.6824377383,0.6398484782,-0.4450620897,0.6071061489,-0.6052992085,0.2849138185,-0.9801188166,0.7298362902,-0.5770030544,0.4779848756,-0.0358823168,-0.1503152132,0.5779964512,-0.8045681662,0.6303550987,-0.7417827781,0.7289536658,0.2735280958,0.3721451352,-0.2245843547,0.3666882945,-0.7728403601,-0.8604241568,0.3066871914,-0.1456721691,-0.4313782157,-0.1289199676,-0.8981322779,-0.9630881144,-0.3877455948,-0.1676334828,0.4473266339,-0.7177707398,0.6494050626,0.305331282,0.0672631512,-0.5942037534,0.30230887,-0.3118697567,0.9618190954,0.3789111185,-0.2202312194,-0.1390961535,0.1611445886,0.0235087092,-0.8249116564,0.2621095609,-0.1229552577,-0.9795029801,0.3282455198,0.5366106997,0.2218277052,0.0411905099,0.1607898886,0.5374104964,0.7536464038,0.6085138938,-0.1002739904,-0.2356665534,-0.1688918014,-0.3425962448,0.3011657798,-0.286259795,0.0608209426,-0.3511364296,0.4288064824,0.7841639995,-0.9152997565,-0.4576542522,-0.8874958541,0.8345472631,-0.4865817585,-0.3518581648,0.7459063524,-0.2684553603,-0.1038240137,0.3638463551,-0.1435335005,-0.6627512743,0.3667396938,0.3639576455,0.4587932137,-0.52867508,0.8625318628,-0.8309137674,-0.0986558797,0.1421108178,0.7528477729,-0.7306496138,0.2895603733,0.2056277779,-0.2378689473,0.431499139,-0.7346600336,-0.5516704694,-0.0892645738,0.7433066479,-0.124574379,0.3459369311,-0.2194091852,0.2644928831,-0.2487299878,-0.1367044185,-0.2569959139,0.1357387757,0.4109631592,0.0878273702,-0.0100801379,-0.2182590213,-0.8508070989,0.419050618,0.459353588,-0.315971663,0.7159625853,0.4483640729,-0.9302737652,0.7623846736,0.0641931458,-0.4709092045,0.66777545,-0.3149288141,0.5182065008,0.8145810736,-0.5282375701,0.2869376065,0.1097464269,-0.3339496833,0.5583729737,0.0076064345,0.7888963714,0.0910865445,0.0535337863,0.9663006883,-0.5768211051,-0.2068551254,-0.1628612606,0.6941514087,-0.0220801772,-0.1608329597,-0.3718455211,0.3075407746,-0.0272457451,-0.9529234655,-0.7411937491,0.0576797925,0.3552357216,0.1849426233,-0.3498701168,-0.5058076767,0.4444779231,-0.0839091265,0.6115316922,0.2579458269,-0.920898276,0.9054369525,-0.3078575461,-0.9006678013,0.6284503767,-0.2278881217,-0.6075027212,-0.4138428214,0.4659956856,-0.5121989769,-0.693023719,-0.011846494,-0.5838120645,0.4556570032,-0.4642697017,0.8284722566,-0.0150856924,0.6823413118,0.5618274382,-0.2093893949,0.417082132,-0.5836278606,-0.5488639964,0.5375802926,-0.9107202504,-0.3611951097,0.0884241394,0.8023521284,0.1291982021,-0.4904109688,0.3710095899,-0.3743885614,0.5109193356,-0.375681721,-0.1854568744,-0.1741246067,0.760025308,0.6257209272,-0.5321420821,-0.6895772946,0.3406627795,0.1436967602,0.206559677,0.6461849179,0.9517296671,0.1056471597,0.0939656359,0.0911944227,0.1895999715,-0.5543101386,0.2381128682,0.4864187571,0.2697651213,-0.338502196,-0.0550255092,-0.9503102201,0.3149384599,-0.1380179298,-0.2367429133,0.4625917325,0.088389143,-0.3406336215,-0.2736162642,0.894762673,-0.8531536755,-0.9131295789,0.4603555512,-0.6844068733,0.0026133125,-0.1438597408,-0.1005896937,-0.7609216059,-0.5953291378,0.0069184292,-0.0092722793,-0.289641124,-0.4030359322,-0.4954241643,0.8034836577,-0.6240345328,0.8581892566,-0.2130278678,0.7781239747,0.0560003152,-0.6155696421,0.5684730102,-0.2270925076,-0.5263346963,0.4843916438,0.9987625466,0.0793614175,-0.369114915,0.4951199777,0.7579300363,0.6319559509,-0.0331246843,-0.7263854218,-0.185521936,-0.9067644636,0.289900178,0.4157533284,0.2266911734,-0.355361927,-0.2020266019,0.8028226118,-0.1337834968,0.4797571906,-0.7497627932,0.0519249427,-0.3055997767,-0.1084635381,-0.1600076367,0.059253086,0.5702712549,-0.1555679195,0.2123209384,-0.4573599438,-0.3037971122,0.1025799869,-0.6911091396,-0.5587601144,0.6795883292,-0.6145980207,0.2637327021,0.8424956286,0.3535256614,0.229858168,-0.7547060827,0.1322943051,-0.0633013281,-0.6374660264,0.029454028,0.104281751,0.1342087369,-0.7674012081,0.6946874982,0.4969063683,-0.4509123044,0.6753051636,-0.138471864,0.4788031769,0.6007638645,-0.0123782166,-0.6777657421,-0.5064755013,0.7439981219,0.4157349677,-0.3963824276,0.2165958329,-0.3189483634,0.2828821016,-0.2822262852,-0.3982376951,0.731805467,0.6092701735,-0.1076732505,-0.2104222251,0.0175895834,-0.8385170738,0.0648969822,0.2235030865,-0.4810926859,0.3801973076,0.3595258038,-0.3608516045,-0.0171075351,-0.6640445735,-0.4899144036,-0.4040024972,-0.3465394293,0.4543926035,-0.3732538152,0.5371817806,-0.8040217597,0.7608394847,0.5890220741,-0.625940368,-0.8163389168,-0.5952725328,0.172433475,-0.0704613237,0.0509636753,0.363593499,-0.5972062203,-0.1116930656,-0.411861699,0.3625868666,0.8574518943,0.8140484821,-0.5107631028,-0.3133993196,-0.3970569691,-0.2894866385,0.727958447,0.1147466421,0.6188315458,0.0608372253,-0.6264545571,0.0556367552,0.3719250645,-0.2708273284,-0.6363170907,0.7954423607,-0.0870418534,0.4727351434,0.3351309645,0.724240427,-0.3647584606,0.5842625282,-1.3115991732,0.781999341,0.7465214638,-0.3402271178,0.4741215456,0.4622776889,-0.8681492423,0.4544035719,-0.0714859796,-0.5705061005,0.732226329,-0.4483252709,0.7895599051,-0.2287474124,-0.1603963149,-0.3506228153,0.7289901639,0.8281965003,-0.5066811152,-0.0029300814,0.240460721,0.0704040236,-0.6767150693,0.4400278708,0.5131897309,-0.9067136467,0.6095076287,0.6029591447,0.3586237305,-0.6391425558,-0.8537614944,0.1630907117,-0.1169988626,0.1918200862,0.198781705,-0.2339710596,-0.2505739443,0.6524536679,-0.1949567279,-0.476360307,-0.8758888458,0.880038855,-0.1457665568,-0.0108938279,0.5298374776,-0.9444278146,0.5443865109,-0.6091924557,-0.4276900165,-0.3961582419,1.0471263382,-0.9030150065,0.7027662813,0.1452676176,-0.1331422178,-0.7046672726,0.0927308998,0.3153488289,0.449365253,0.186414212,0.5089303386,0.6442001941,-0.7354243923,-0.2283505215,0.472838863,-0.3865335431,0.416532246,-0.1947490711,-0.2042481005,0.1235887768,-0.4768616944,0.1498751651,-0.5184897818,0.0092543366,0.3575162237,0.0251905501,0.0936879298,1.2960583865,-0.0324503128,-0.4527333257,-0.7743284844,-1.3216333698,-0.0614405281,-0.4261152965,0.168820329,-0.3088855698,-0.4149057444,-0.3279054069,-0.0573113796,-0.1547517539,0.2474577102,-0.3135365451,-0.1084348627,-0.2610145285,-0.5992021661,0.1579767336,-0.5743497352,0.7627039379,-0.3217788173,0.5353200662,-0.173936791,0.101309264,0.8166803385,0.5440386785,-0.3314028983,-0.8948016855,-0.2699546506,0.8747635298,0.8677427207,-0.3905390129,0.9928746845,0.6766926476,-0.365427096,0.4514047376,0.7683606112,-0.1617582094,-0.6353806502,-0.0701631924,-0.7833714624,0.6498795412,0.5463208746,-0.2889590736,0.5157852665,-0.4895980355,-0.5011395996,-0.0970187114,0.0406507561,0.0802893261,0.5835762421,-1.9497273213,0.0963188208,0.567202628,-0.2669472421,-0.8016102574,0.9779686442,-0.5252785769,-0.9986966624,0.0022201783,-0.0973366023,0.163764973,0.0886242131,-0.7599694238,0.8503346876,-1.1247937715,-0.0060106652,-0.1739902223,-0.9178219208,-0.4322540838,-0.2096663103,1.080648379,-0.3085734578,1.0098406229,-0.1790968228,-0.9001621333,0.1917790455,0.656585785,0.7097037895,0.1687924682,-0.36917105,0.6258754468,-0.6043310802,0.5499184107,0.0362476002,-0.340780371,0.0281962897,-0.0168003087,-0.5856089084,-0.2132016658,-0.2479066567,0.879432347,0.5192590241,0.1026906639,1.4498811186,0.9604413713,0.8634712465,0.0363319955,0.4166209534,0.1484934292,-0.6006128952,-0.2603436887,-0.1907854041,0.8911947053,-0.829375365,-0.0838592945,-0.8321512567,0.9554668131,0.0160359139,-0.1660237915,-0.1565188325,-0.8802221008,0.6525484721,-0.6215701971,1.2120240324,-0.7149048374,-0.6716921708,0.7924265938,0.7439717844,-0.5711679166,-0.3308592627,-0.4016162271,-0.515551098,0.1521519422,0.3869919482,0.6423871151,-0.4771508978,0.4432824346,-0.0297343363,0.5400910526,-0.4987370579,0.0397465303,0.4803882088,-0.6485145814,-0.6193052615,-0.0252964724,-0.4712322318,0.7839891039,-0.4071549685,-0.1465267833,-0.0126028837,-0.1525728176,-0.1523327553,1.1540997968,0.4818619576,-0.3249212849,0.8726497075,-0.1301728516,-0.8960565842,0.4561602035,-0.1496293622,0.1156143683,-0.1826217135,0.4449617298,0.5462521257,0.1942945908,-0.4603168652,0.484237415,-0.7746910172,-0.6364433609,0.0757991462,0.771391595,-1.302851912,1.0414842804,-0.4251127418,0.8187457226,-0.0343073452,0.1483431593,0.2514294223,-0.2144057123,0.1376549971,-0.5760930874,-0.002098188,0.0263266818,0.6747581393,-0.4811933268,-0.1577047947,0.7228679725,0.0154488881,0.1107035288,-0.2570665266,-0.8752322386,0.3689679907,0.0334614594,-0.1884647079,0.6894954657,-0.3368183634,0.7770130726,-0.843107843,0.1121187687,-0.1068916313,1.2191561157,-0.0588825822,-0.0834656134,-0.3163874666,0.4425722354,0.9005892191,-0.3335747279,-0.1609070584,1.0116374307,-0.7033454745,-0.6316173802,-0.3103092702,-0.4349623875,0.2251310052,0.6617597923,-0.0826714143,-0.6881057818,-0.6058410475,-0.7622522056,-0.845273146,0.7880800622,0.932034476,-0.7838178013,-0.5328827565,0.5390683717,-0.7730831167,-0.383891148,-0.325349637,-0.2999958506,-0.7831901838,-0.0141735993,-0.3603884262,-0.6382787632,0.4098898633,-0.7001619886,0.5433316612,-0.3944243093,0.427565737,-0.0580688548,-0.2799071151,0.614879126,-0.6320458904,-0.1601029307,-0.1489407983,1.1162842836,0.8161182589,-0.8229660827,-0.8355394652,0.8833402568,-0.3232354858,0.6632753455,-0.6081995194,-0.0604258583,0.8526607536,0.6251201446,0.2634330878,-0.3757211465,-0.0372161975,0.5223708618,0.9060420829,-0.6841008026,0.8828556752,0.0962906028,0.3897217187,-0.6455795214,-0.0436032326,0.4868359799,-0.0490381257,-0.2119588991,0.3171318761,-0.6193308774,-0.0383890296
biasActivation=1,1
[BASIC:ACTIVATION]
"org.encog.engine.network.activation.ActivationLinear"
"org.encog.engine.network.activation.ActivationLinear"
