encog,BasicNetwork,java,3.3.0,1,1467473245429
[BASIC]
[BASIC:PARAMS]
[BASIC:NETWORK]
beginTraining=0
connectionLimit=0
contextTargetOffset=0,0
contextTargetSize=0,0
endTraining=1
hasContext=f
inputCount=1600
layerCounts=1,1601
layerFeedCounts=1,1600
layerContextCount=0,0
layerIndex=0,1
output=0,0,0,0,0,0,0,0,0,0,0,0,0,0,0,0,0,0,0,0,0,0,0,0,0,0,0,0,0,0,0,0,0,0,0,0,0,0,0,0,0,0,0,0,0,0,0,0,0,0,0,0,0,0,0,0,0,0,0,0,0,0,0,0,0,0,0,0,0,0,0,0,0,0,0,0,0,0,0,0,0,0,0,0,0,0,0,0,0,0,0,0,0,0,0,0,0,0,0,0,0,0,0,0,0,0,0,0,0,0,0,0,0,0,0,0,0,0,0,0,0,0,0,0,0,0,0,0,0,0,0,0,0,0,0,0,0,0,0,0,0,0,0,0,0,0,0,0,0,0,0,0,0,0,0,0,0,0,0,0,0,0,0,0,0,0,0,0,0,0,0,0,0,0,0,0,0,0,0,0,0,0,0,0,0,0,0,0,0,0,0,0,0,0,0,0,0,0,0,0,0,0,0,0,0,0,0,0,0,0,0,0,0,0,0,0,0,0,0,0,0,0,0,0,0,0,0,0,0,0,0,0,0,0,0,0,0,0,0,0,0,0,0,0,0,0,0,0,0,0,0,0,0,0,0,0,0,0,0,0,0,0,0,0,0,0,0,0,0,0,0,0,0,0,0,0,0,0,0,0,0,0,0,0,0,0,0,0,0,0,0,0,0,0,0,0,0,0,0,0,0,0,0,0,0,0,0,0,0,0,0,0,0,0,0,0,0,0,0,0,0,0,0,0,0,0,0,0,0,0,0,0,0,0,0,0,0,0,0,0,0,0,0,0,0,0,0,0,0,0,0,0,0,0,0,0,0,0,0,0,0,0,0,0,0,0,0,0,0,0,0,0,0,0,0,0,0,0,0,0,0,0,0,0,0,0,0,0,0,0,0,0,0,0,0,0,0,0,0,0,0,0,0,0,0,0,0,0,0,0,0,0,0,0,0,0,0,0,0,0,0,0,0,0,0,0,0,0,0,0,0,0,0,0,0,0,0,0,0,0,0,0,0,0,0,0,0,0,0,0,0,0,0,0,0,0,0,0,0,0,0,0,0,0,0,0,0,0,0,0,0,0,0,0,0,0,0,0,0,0,0,0,0,0,0,0,0,0,0,0,0,0,0,0,0,0,0,0,0,0,0,0,0,0,0,0,0,0,0,0,0,0,0,0,0,0,0,0,0,0,0,0,0,0,0,0,0,0,0,0,0,0,0,0,0,0,0,0,0,0,0,0,0,0,0,0,0,0,0,0,0,0,0,0,0,0,0,0,0,0,0,0,0,0,0,0,0,0,0,0,0,0,0,0,0,0,0,0,0,0,0,0,0,0,0,0,0,0,0,0,0,0,0,0,0,0,0,0,0,0,0,0,0,0,0,0,0,0,0,0,0,0,0,0,0,0,0,0,0,0,0,0,0,0,0,0,0,0,0,0,0,0,0,0,0,0,0,0,0,0,0,0,0,0,0,0,0,0,0,0,0,0,0,0,0,0,0,0,0,0,0,0,0,0,0,0,0,0,0,0,0,0,0,0,0,0,0,0,0,0,0,0,0,0,0,0,0,0,0,0,0,0,0,0,0,0,0,0,0,0,0,0,0,0,0,0,0,0,0,0,0,0,0,0,0,0,0,0,0,0,0,0,0,0,0,0,0,0,0,0,0,0,0,0,0,0,0,0,0,0,0,0,0,0,0,0,0,0,0,0,0,0,0,0,0,0,0,0,0,0,0,0,0,0,0,0,0,0,0,0,0,0,0,0,0,0,0,0,0,0,0,0,0,0,0,0,0,0,0,0,0,0,0,0,0,0,0,0,0,0,0,0,0,0,0,0,0,0,0,0,0,0,0,0,0,0,0,0,0,0,0,0,0,0,0,0,0,0,0,0,0,0,0,0,0,0,0,0,0,0,0,0,0,0,0,0,0,0,0,0,0,0,0,0,0,0,0,0,0,0,0,0,0,0,0,0,0,0,0,0,0,0,0,0,0,0,0,0,0,0,0,0,0,0,0,0,0,0,0,0,0,0,0,0,0,0,0,0,0,0,0,0,0,0,0,0,0,0,0,0,0,0,0,0,0,0,0,0,0,0,0,0,0,0,0,0,0,0,0,0,0,0,0,0,0,0,0,0,0,0,0,0,0,0,0,0,0,0,0,0,0,0,0,0,0,0,0,0,0,0,0,0,0,0,0,0,0,0,0,0,0,0,0,0,0,0,0,0,0,0,0,0,0,0,0,0,0,0,0,0,0,0,0,0,0,0,0,0,0,0,0,0,0,0,0,0,0,0,0,0,0,0,0,0,0,0,0,0,0,0,0,0,0,0,0,0,0,0,0,0,0,0,0,0,0,0,0,0,0,0,0,0,0,0,0,0,0,0,0,0,0,0,0,0,0,0,0,0,0,0,0,0,0,0,0,0,0,0,0,0,0,0,0,0,0,0,0,0,0,0,0,0,0,0,0,0,0,0,0,0,0,0,0,0,0,0,0,0,0,0,0,0,0,0,0,0,0,0,0,0,0,0,0,0,0,0,0,0,0,0,0,0,0,0,0,0,0,0,0,0,0,0,0,0,0,0,0,0,0,0,0,0,0,0,0,0,0,0,0,0,0,0,0,0,0,0,0,0,0,0,0,0,0,0,0,0,0,0,0,0,0,0,0,0,0,0,0,0,0,0,0,0,0,0,0,0,0,0,0,0,0,0,0,0,0,0,0,0,0,0,0,0,0,0,0,0,0,0,0,0,0,0,0,0,0,0,0,0,0,0,0,0,0,0,0,0,0,0,0,0,0,0,0,0,0,0,0,0,0,0,0,0,0,0,0,0,0,0,0,0,0,0,0,0,0,0,0,0,0,0,0,0,0,0,0,0,0,0,0,0,0,0,0,0,0,0,0,0,0,0,0,0,0,0,0,0,0,0,0,0,0,0,0,0,0,0,0,0,0,0,0,0,0,0,0,0,0,0,0,0,0,0,0,0,0,0,0,0,0,0,0,0,0,0,0,0,0,0,0,0,0,0,0,0,0,0,0,0,0,0,0,0,0,0,0,0,0,0,0,0,0,0,0,0,0,0,0,0,0,0,0,0,0,0,0,0,0,0,0,0,0,0,0,0,0,0,0,0,0,0,0,0,0,0,0,0,0,0,0,0,0,0,0,0,0,0,0,0,0,0,0,0,0,0,0,0,0,0,0,0,0,0,0,0,0,0,0,0,0,0,0,0,0,0,0,0,0,0,0,0,0,0,0,0,0,0,0,0,0,0,0,0,0,0,0,0,0,0,0,0,0,0,0,0,0,0,0,0,0,0,0,0,0,0,0,0,0,0,0,0,0,0,0,0,0,0,0,0,0,0,0,0,0,0,0,0,0,0,0,0,0,0,0,0,0,0,0,0,0,0,0,0,0,0,0,0,0,0,0,0,0,0,0,0,0,0,0,0,0,0,0,0,0,0,0,0,0,0,0,0,0,0,0,0,0,0,0,0,0,0,0,0,0,0,0,0,0,0,0,0,0,0,0,0,0,0,0,0,0,0,0,0,0,0,0,0,0,0,0,0,0,0,0,0,0,0,0,0,0,0,0,0,0,0,0,0,0,0,0,0,0,0,0,0,0,0,0,0,0,0,0,1
outputCount=1
weightIndex=0,1601
weights=0.3018691502,0.9291802452,-0.8261316554,0.8209732336,-0.8266982218,-0.4318880257,0.8393065249,-0.7574352806,0.0519763911,0.8576779968,-0.2991313305,0.1568206804,3.0657330111,12.7817730035,3.003618389,14.1304769105,0.2653893444,0.6224303416,1.2536250053,1.1006042054,1.4025177064,-0.2447399141,2.7713738123,1.1686981628,0.7123073885,7.5413731279,21.2970162207,2.3804465598,3.5927131046,0.1116019518,1.8668938005,2.5493455885,1.6536847321,0.6018417955,-0.683140755,1.1933610456,0.6483474457,1.0016270706,0.9595411346,5.9465323197,-0.2235608072,0.9392176047,-0.7943009778,-0.7878756424,-0.7094191892,0.4094405671,0.3040655439,0.5217903091,0.431431528,-0.4764016123,-0.8707123775,-0.0184108342,1.1511406454,-0.605035229,-0.7700177463,-0.1371885196,0.7203381766,-0.8093812011,0.2003296297,-0.7108626265,0.9680789279,0.0953733879,-0.5686185339,-0.7007269926,-0.2354682941,-0.0520474515,0.4638411404,0.5120830535,0.5569597915,-0.3290643703,0.8953029186,0.625923373,-0.6285414833,1.2501172263,0.7712402533,0.5404101455,0.4583533881,-0.4679562608,0.0084561685,5.1708650069,-0.0256784464,-0.4968046818,-0.8016741852,0.2299503996,0.0255837438,0.0881884719,0.4491382685,-0.8759034823,0.1793726589,0.218861099,-0.2795825932,0.1512065666,0.494081156,-0.2781410983,-0.2722740062,-0.5328678265,0.7628797217,-0.031876003,-0.5612678524,0.2313143504,0.1039556219,-0.2418519976,-0.2498250689,-0.8510940238,0.7125865804,0.826998762,-0.6335246204,0.6299145347,0.6505922013,0.4697743039,-0.7493939108,0.7116086619,-0.2349382633,-0.2434185261,0.0780337249,-0.4657961143,0.312425739,0.626841583,-0.2919288344,0.7811121316,-0.9354759087,-0.9621321336,-0.5216144941,0.566415791,0.0097487089,-0.2155952076,-0.9861661865,-0.9300839789,0.7662725999,-0.7990148095,-0.7424671145,-0.5107294385,-0.4445584957,-0.3225730455,-0.0975827146,-0.9202491673,0.0217763288,0.7144782569,-0.1841004698,-0.1308332153,-0.8143834224,-0.0120337628,-0.3563516458,-0.1665913542,0.9394490356,-0.9865854319,-0.4032847615,-1.6407825779,-0.1819381589,-0.1401944094,0.7615143563,-0.6858691147,0.264470276,1.2445190287,1.1277154977,-0.5180717497,0.3377316229,0.9629280431,0.0195592269,-0.6278209092,-0.4046502304,-0.8707568998,-0.4057883623,0.4251773558,-0.9679832933,0.0288875689,0.0214614333,-0.428365579,0.5088446941,0.3908197377,0.2874736363,-0.8513257718,-0.645445847,0.8883659768,0.2039328996,0.2051709406,-0.9086168063,-0.1558846189,0.1198614406,0.9796419879,0.5663330053,-0.2742459584,0.3451361798,-0.7584044978,0.4202307672,0.5806831006,-0.3856968566,0.7232001791,0.5239186684,-0.3043474532,-0.8425677432,0.4070616313,0.6494399803,0.2777979005,0.5246062739,0.3261089695,1.0050314827,-0.1691966123,0.3216970065,0.1606505337,0.6760202454,-0.1281019604,-0.1542613536,0.8079405238,0.4360405951,0.3884356171,-0.8545310007,0.2716351099,0.2254053776,0.8313697428,0.0620500053,0.3417680386,-0.1411607134,0.1118528848,-0.3908210252,-0.9728725865,0.1025990899,0.3510759536,0.1664184217,0.66669996,0.476692793,-0.6947303566,0.5841418277,-1.0658969601,-0.2790827522,-0.4031336452,0.1162571227,-0.3427609448,0.6012115799,-0.8577638366,-0.8641611027,0.2124962053,0.3852195277,0.4534889687,0.6575930786,-0.650416304,-0.1911028873,0.0244069906,-0.4175593651,0.459676101,-0.7548926625,-0.6676596073,0.4286936045,-0.4076494533,0.7598836229,-0.7688325577,-0.9446075606,0.3488085299,-0.556335139,0.3138008884,0.5351888602,0.5468360881,-0.876881837,0.825734901,0.1667858363,-0.7097220179,-0.0728951321,0.51017931,0.9259918861,0.001431245,0.6093669502,-0.5900021391,0.2192970227,-2.703699775,0.4836872341,0.8123067564,0.2555546411,-0.1557006469,-0.9078726612,0.0042262686,-0.5057128685,0.6631278672,-0.300317161,0.3870731514,0.9426544559,0.4796296498,-0.7095667641,-0.4197028823,0.9409351884,0.1055056294,-0.2965471171,0.859650258,0.6111716065,0.2814371478,0.2176700071,0.1353261895,0.5500870568,-0.8583761062,-0.4342244573,-0.8665688849,0.1743616744,-0.1399112623,0.1518378277,-0.1126618057,-5.8547608768,0.3434545075,0.1671158363,-0.808643638,0.7549892285,0.5806032379,0.5819886732,-0.2738814237,0.6060917366,-2.223412313,-18.7898621142,-0.1953524345,0.6016932508,-0.2775205488,0.8026068862,-2.9301648118,-0.0457962508,0.0941528249,0.5089734597,-0.1818798455,-0.8275390274,-0.0694840196,-0.8332453275,-0.6915375386,-0.6504524379,0.2443468397,-0.4207501959,0.6990823623,0.4796501656,0.4995753694,-0.6834895579,0.7318824587,0.0537293531,0.5112666927,-0.6296463184,-0.9608203269,-0.0975317716,-0.3448818756,0.771568475,-0.7684636835,-0.8607041704,-0.3635302357,-0.1713819665,-0.0282053849,-0.4840054521,0.9749989531,0.4150713578,-0.9763191068,-1.1067683301,-0.8409861016,-7.6846138781,0.8834736868,0.9320057501,-0.8783615018,0.5479266449,-0.8503596142,-0.7956775268,-1.0229824586,-0.4792540393,-0.7820281484,-0.8956594275,-0.8450663424,0.0312438124,0.2441904953,0.0621421193,-0.0764154209,-0.2466837944,-0.893379029,-0.5917723814,0.8570167786,-0.9816776963,0.8632588263,0.6188592958,0.3131133445,0.9385195278,-0.7619214661,-0.0451663989,0.5624238251,-0.6898452767,0.0954409887,0.6294424195,-0.3035047788,-0.0356575475,-0.4522510192,0.5645018856,0.1046285289,0.899850708,0.0516711887,-0.1991609773,0.3952051617,-1.9370313777,0.142024722,0.6437933212,-0.1321609567,-0.2088238404,-0.0420492575,-0.6688888506,0.7010937403,-0.8322889412,-0.0660212996,0.5918215259,-0.6040473142,0.9920191109,0.2256576895,0.5665856838,0.7360566102,0.0720755365,0.911296294,0.487290476,-0.3382732639,-0.8924626953,-0.8541439454,-1.1882545045,0.0868678321,0.739721337,-0.6417232051,-0.3286511578,-0.2878050767,-0.1065023745,-0.7958921594,-0.656459682,-1.0396092803,0.1799216178,0.8419150537,0.1422064155,-0.0623249065,-0.4946197259,0.1461846827,4.1370033282,-0.9257956514,-2.4416534089,-0.5018545599,0.6391678654,0.9901513338,1.2239659882,1.0107627482,0.9633381506,-0.0793948554,0.1942305767,-0.2654179076,-0.6991389593,-0.1275945076,-0.008366456,0.5775392303,-0.2019077425,0.8826588909,-0.731074266,-0.0197626218,-0.224058647,-0.7005508202,0.1208415702,0.9344474256,0.1858655075,0.5440256078,0.2491280318,-0.8559672819,-0.7015660118,0.3611560574,0.0698841126,-0.6388914481,-0.1056151752,-0.6879116783,-0.7841951964,0.0178797679,0.1538649789,0.6399836319,-0.8839130719,-0.2084930969,-1.0230723042,-14.0338541142,-2.7500415901,-0.4778292127,0.9301301851,-0.9777715477,-0.7068680493,-0.5595614639,0.3995458854,-0.5849023939,-0.862351874,0.6731844858,-0.2381519199,0.6381831903,0.2828500882,-0.4883475932,-0.3259509125,-0.8689125372,-0.2195130643,-0.1056599064,-0.8369117964,-0.3633411616,0.6990533084,0.8720679627,0.5782369183,-0.8757674256,0.7133361534,0.5876249342,0.0721828755,0.4621850459,0.6925432784,0.5084962325,0.1493739201,-0.2661852298,0.3402825614,-0.7372007607,0.5369371534,0.5348478603,0.0450080581,-0.0585284514,0.0163073352,-0.5003390947,-0.1027723844,-1.3937237396,0.3131233332,-0.994990763,-0.8440585204,-0.3516109977,-0.3451840261,0.851719177,0.3002139507,-0.1354512028,0.5043467079,-0.5765542495,-4.9943305233,0.4307135324,-0.1477169129,-0.2926192509,-0.0151379861,0.5259933639,0.3939811919,0.2789210077,0.5050643551,0.7401957366,-0.3808083928,-0.7149118137,-0.8366986169,-1.0176269675,-0.8637643173,-0.7839365463,0.0919537075,0.2260760742,0.4100974202,0.3257041892,-0.4604348963,0.0280626213,0.4365305824,-0.2485743645,0.8316521123,-0.1097142434,-1.1388783263,-0.3221807586,0.4026466817,-0.7045252696,-0.3229001161,-0.0407149146,0.1472088418,-0.0506874011,-0.0883788225,-0.7311563599,-0.3389852616,0.5922130429,-0.165958943,-0.7119017751,0.5903796542,-0.3125181298,0.9912351126,-0.2403710259,-0.0544875917,-0.2187200606,0.8207146566,0.235209713,-0.4679062948,0.9724179902,0.4690728076,0.3636459809,-0.5025556057,0.8725401725,0.9437961812,-0.1359016201,-0.0872124827,-0.3012066234,0.5980521445,0.9264275365,0.9631815338,0.4429391205,-0.1091047279,0.8704597721,-0.3537392502,0.3469373741,-0.2968192215,0.6852983986,1.8677232757,0.8981715564,0.607772465,0.0618717128,-0.7547358342,0.3402425177,-0.3007605757,0.3678489935,0.6644202626,-2.6808221381,-0.8913773579,-2.5571757031,0.4077092506,-0.0418856144,-0.0118769702,0.6015906934,-0.8710693315,0.7295876646,-0.3554730539,-0.568301198,0.332001288,-0.0237352896,0.3119140658,0.8631458198,-0.5863819663,0.6149574856,-0.3417988723,-0.3739026425,0.5830221077,0.1523567307,-0.5616395899,0.8891514003,0.6726381893,0.4020502691,1.9507728917,-0.7684548116,-0.9365351023,-0.4703954699,0.0291224212,-0.4407723598,0.2650946879,0.8739436258,0.3015467231,-0.2348225636,-0.1496735168,0.8466036211,0.252179746,-13.6424699872,-1.0213142131,0.3065904269,0.1805417559,-1.6917449125,0.3260906842,-0.3220664479,-0.3162913305,-0.1086364367,0.0329708878,-0.9519859916,0.5770875294,-0.1066115832,0.316930476,-0.5411541202,-0.2855068598,-0.3166376546,0.7463835357,-0.5660471079,-0.5746248862,0.3431803074,-0.8798476513,-0.2519720943,0.3470962519,0.5495665975,0.6988157652,-0.1580954392,-0.8291056278,-1.8245482142,-0.7856131102,0.2968297832,-1.801985836,-3.0996045222,2.090192623,2.3788678081,-0.2693930553,0.9078738978,-0.1701146753,-0.5731997501,-0.1518702095,0.3434504919,-0.6077625229,-0.6975408027,0.7491272058,-1.0167232756,0.3499996371,-0.0137852765,0.4210814413,-0.8108776485,0.955641577,0.9824660329,0.93941715,0.9830108194,-0.4310168504,0.7821988233,0.2697532194,0.8565173459,-0.9560225657,0.1347807049,-0.5999302432,-0.0303190556,-0.8746868128,0.7213795292,-0.2374429759,-0.607230765,0.297354827,-0.9291620065,-1.0213664153,-0.0675455091,-1.0564458875,-3.0524890655,-0.9289492165,-1.347783419,0.7239313103,0.5849632425,0.2662754715,-0.0802204928,-0.5900472826,0.2081508031,0.2834615062,-0.0561646329,0.6598840641,-0.8042995194,-0.390339052,0.2977167887,-0.6777004843,-0.6697395076,-0.3295935231,0.0016271141,0.0209452828,0.3972043187,0.0576172783,-0.6370190042,1.414952065,1.2077535158,0.516772264,-0.8826506142,-0.7917916299,0.1281179633,0.990475269,-0.9315523675,0.6143502828,-0.1109263611,-0.4730871737,-0.9876787393,-0.9674929798,-0.2944712022,0.2178940066,-0.4271278105,-1.3310379054,-0.05538552,-1.476951644,-1.7619316175,0.316811827,1.8341269302,0.7818720818,-0.9005494413,-0.8789267168,-0.3361702473,0.6090723829,-0.6093022851,-0.9759830599,-0.1088509021,-0.8457069713,0.578160337,0.5191079035,0.6121284861,-0.1423152863,0.5239581528,0.5539198837,0.5905697816,0.4537296877,0.3995843624,0.442323718,1.1763757359,1.0421304602,-0.0060693892,-0.32879338,0.3582336277,0.0087235452,0.1890211107,-0.959335834,-0.0242135434,-0.2345549287,0.8514869345,-0.7199950082,-0.2916579549,-1.1102663835,0.2622254662,-0.7214595719,0.0918351077,-0.8966039929,-1.8737820243,-3.8589363658,-0.756591207,0.2125993473,-0.3525428616,-0.397491301,-1.1482964149,0.2444314739,0.4274123844,-0.9616679612,0.2847714902,-0.9109544569,-0.9393881144,-0.9087377858,0.3948570007,0.2680783421,0.6095691429,0.6515596787,0.51033078,-0.389608438,0.0240283003,-0.315680883,1.7589728424,0.6582767068,-0.6754898194,0.3524977923,-0.526604208,0.6046415086,-0.0213282939,-0.8578607909,-0.3990078326,-0.2917205433,0.3598343951,-0.004973622,0.3503655958,-0.288151422,-0.8680925171,-1.6118271202,-0.9105919815,-1.3957570468,-0.7046691895,-1.6649321103,-0.3909121164,-0.4704659915,-0.3758361812,-0.8329305431,0.7256364743,-0.3957801646,-0.1203773535,-0.0287304587,-0.7335950174,-0.2537781465,0.0884055715,-0.2059953513,-0.2333240257,-0.1919511065,0.8799898687,-0.7089618951,0.2324448321,0.5128232025,0.8031238917,0.2114250983,0.7418575859,-0.7371380282,-0.7594288075,-0.8107250604,-0.1347871178,-0.7325093536,-0.6945269259,-0.51019962,0.587361164,0.789157711,-1.3227826145,-1.0270577718,-0.0184831694,-0.1912648562,-1.3762082721,-0.8845603165,-0.1225571783,-0.6998140654,-0.0360972411,-1.2195866142,-0.4693205155,-0.9565913397,-0.7196152968,0.0622221716,-0.7638821969,-0.453050067,-0.0680077324,0.8404593772,-0.3456437508,-0.0220723266,-0.9496146547,0.8306292284,-0.5958354874,-0.0360797769,0.1436602458,-0.5315157012,-0.6339484552,0.6223250533,-0.641740557,0.9757882749,0.4384784564,0.1763819383,-0.166019129,-0.0139586495,-0.3892546975,-0.6592002464,0.2431175787,0.6308024144,0.7990072852,0.1095368213,-1.4034884577,-1.113433246,-0.1031475851,0.6966840953,-0.5483819595,-0.9696404335,0.3636778861,-1.1087621274,-0.1170694456,-0.3938849778,-0.5528570952,0.4574484752,0.6064502372,-0.7226515968,0.1944335611,0.4257350215,-0.7545968942,0.154028017,-0.3206579353,0.6255068668,0.6141386218,-0.7319531908,-0.289230422,0.1552592401,0.3801449754,-0.3272190303,0.3399947143,0.8992798193,0.0131168358,-0.3092253998,0.5535668982,-0.3508167335,0.0023268565,-0.916916159,0.9063228077,0.074529097,0.9926414598,0.9552692814,-0.0958288176,-0.4919247685,0.6442752816,-0.3740191356,1.4402814968,1.5505657326,0.281547929,-1.1876434049,-0.5419732181,0.3852559373,-0.3976434081,-0.8733785473,-1.1580766193,-0.4208302162,0.1026331867,-0.6064896428,0.0199515232,0.2987234241,0.993920027,-0.1365310335,-0.1448620415,0.5515646818,-0.041695188,0.848682962,-0.9165967529,0.0849811798,0.1169025099,0.8082165678,0.8416123501,0.819562481,-0.0629727171,0.1038711546,0.8072237312,-0.9189715744,0.6365009851,-0.1559222737,-0.685639264,-0.2486856652,0.6454750461,-0.4609945625,0.3361186912,-0.1174437782,-0.5482866917,1.2452738339,0.9318270073,1.5332329814,0.6376479362,0.3345349896,-0.4570930524,-1.1568535301,-0.6917692943,-0.4208013864,-0.5256274462,-1.0099735347,-0.9735670761,0.9700416304,-0.7650272559,0.6686288533,0.1150223089,-0.5947523873,0.4374693756,0.0296611757,-0.3093132508,-0.5809498834,-0.6079744658,0.2762929815,0.484585275,-0.6985302983,-0.7029932953,0.8584786593,-0.0637826891,0.6209451304,-0.4200136275,-0.3165391379,-0.5905370707,-0.7808630628,-0.7327749979,0.3212201743,-0.3048466689,0.3764482021,0.6666467793,-0.1907113993,1.2785881276,-0.0269279652,-0.609700319,-0.1428092877,0.723381778,-0.2679692541,-0.2605234971,-0.7353591932,-0.8780464178,-0.8849060957,-0.9841503336,-0.3820468386,-0.6019304821,0.7867592102,0.3053618127,-0.0327121338,0.5831883411,0.0539866203,-0.6492663747,0.6358018244,-0.719977054,0.0044087262,-0.6493012124,-0.5787400363,0.5413786477,0.2171425806,0.9878159819,0.1977284328,-0.8139518747,0.2785754739,-0.3229811418,-0.0591108442,-0.9980648966,0.6298302109,0.0103895186,-0.7833652601,-0.5521360038,-0.1789901923,0.5894588668,-0.1925432128,0.4905682123,0.9670796572,1.228744049,-1.0790506642,0.4639191382,-1.1435711573,-2.2677664019,-1.1080518664,-0.2003875661,-0.1172792504,-0.7842276105,0.3076489162,-0.9675835026,0.4866054152,0.8289048277,-0.2678642566,0.0549581459,-0.9022842915,-0.186022788,0.8941390178,-0.6636988465,-0.5052585559,0.0971280911,-0.4879401196,-0.9351257376,0.6172666434,0.2800765667,-0.8675473099,-0.3790161614,1.0044953526,0.0653925829,0.0136874137,0.3224194909,-0.0365336856,-0.1360210552,-0.3053825989,0.4792304189,-0.0692013607,0.2772649621,0.8452491058,0.235067156,-0.7823151059,-0.1831003493,0.7275944189,-0.3156296568,-1.2969628018,-1.7700546856,0.0626951622,0.8288685521,0.2478025243,-0.7185837261,-0.6772200829,-0.2392782684,0.0120486451,-0.7917071569,-0.4995202757,-0.3737381285,-0.5546020518,-0.803818636,0.186919182,0.3072112144,0.7397306512,0.9095092719,-0.4054852994,0.4441178291,-0.6859669792,-0.5309146252,0.1949961983,0.9897237576,0.143068545,0.7193628318,0.5012590889,-0.781848583,0.1131884244,0.5051715555,0.8609956291,0.4102478558,0.0136315615,-0.1253703321,-0.7853774069,0.4395007688,0.4192155342,0.7462047281,0.4362728758,-1.0228313266,-1.5698869374,-0.0910747636,-0.6234723423,-1.1113333499,-0.9494843455,0.5555070354,-0.9249836042,0.9425739076,0.5246987717,0.006057134,-0.8844458645,-0.1661675454,-0.0767798988,0.352519603,-0.5533293589,-0.8177573625,-0.5692996381,0.9558769473,0.0961244761,0.5449142816,0.8142072738,0.8753710552,-0.6015372054,0.4922344478,-0.6503584274,0.3517096799,-0.0234725992,-0.8852663738,-0.7852498713,0.0738064047,-0.0392829339,0.3412505049,0.0654481703,0.3302097467,0.4514414955,0.5608409734,-0.1155328212,0.4607089045,0.2991940835,-0.6584529376,-1.1870001317,-1.2057783108,-0.8709788212,0.3446211651,0.7280312126,-0.8517232621,-0.0404600922,-0.3550378234,0.4408169859,-0.1574003983,-1.0067003783,0.1440111568,-0.0405797195,-0.7733661951,-0.9650728297,1.0431582006,0.5736095558,1.011833129,0.3843398259,0.6316399538,-0.4788741433,-0.4005072732,0.4731536729,0.4237320539,0.0625884605,0.0705315811,0.6895678122,-0.9157952488,0.8305191666,-0.8591119073,-0.2781390088,0.7658989201,-0.9779235386,-0.1303501102,0.303572892,0.1775707632,0.8439905126,-0.9882137427,0.887238594,0.9082573877,-0.8980457864,-0.8924230657,-0.8591592862,-0.1421989994,-0.6023317143,-0.5466125411,0.320338982,0.0699306139,-0.3057288098,-0.9128877579,0.3569228907,0.9816927906,-0.7305565696,-0.9477538794,-0.6247029202,0.7477588529,-0.8939132596,0.563202654,0.8442000917,0.2245985082,-0.4042181218,-0.200231154,-0.113142295,-0.6294530528,0.9598704969,-0.2545206806,0.7109068574,-0.6897828949,-0.986391115,-0.9898628793,0.4615117431,-0.7267212338,0.1905292166,0.2397709879,0.6478726296,0.3989704267,-0.8269408792,-0.3230728937,-0.1132139511,-0.2405087546,-0.6808013096,-0.6513344375,-1.2358566016,0.5503313986,-0.3334695988,0.3335146794,0.4422951828,0.3768698934,-0.412090234,0.6738675065,0.2770283885,0.328406364,-0.7529765185,-0.3397942377,-0.6856180285,-0.0392665981,0.4001625738,0.4492431263,0.0332836811,-0.5632684911,1.164127119,0.2253458415,-0.53299971,0.7358158931,-0.7166091797,0.5805419898,0.3567654015,0.8962923145,-0.5333957208,-0.2872623747,0.3026615112,0.3952127954,0.9709044624,-0.126431191,0.5799385526,-1.7201976829,0.6232401668,-1.9999734932,-0.8294238137,0.4785684443,-0.2441916374,-3.1417310986,-2.0004051642,-0.1070435864,-0.4075370331,-0.8752220461,-0.5883741333,0.9775596256,0.8422795116,0.5493556002,-0.6399952947,0.3146786451,0.8115492106,-0.3584262627,-0.742333021,-0.2845438668,0.5320280184,-0.8777691585,0.2494719929,-0.1067490956,0.4704126993,-0.7505784697,-0.5201108024,-0.3831236572,-0.4719749452,0.4019385304,-0.3551254727,-0.3609035838,-0.9023756672,-0.6069182344,-0.6931722521,0.663420934,0.4457156931,-0.3559298999,0.3779214597,-2.0687019044,-0.4261940895,-0.2283598478,0.1965701495,0.4883372807,-0.4107330813,-0.6820192252,-0.9436633965,-0.7499605536,0.4707224806,-0.8962804979,0.850478817,-0.4787453887,-0.2409050776,0.3135325621,-0.7227112092,0.2155175839,0.5469541984,-0.0720832977,0.61080638,0.5244687078,0.1785911548,0.6666863757,-0.4256682694,0.6544267078,-0.7818746087,0.5070238237,0.5155301155,0.8187952021,-0.1418839018,-0.3052529021,-0.9011222921,0.4853618706,-0.8083392795,-0.3457236997,0.4473598089,-0.604393944,0.3145093232,0.3281585935,0.2743599186,-0.4607892841,-0.1385240629,0.0921056815,-0.2105885078,0.7404664751,0.3903491979,0.4098143114,-0.1264588323,0.4259344108,0.7711522295,-0.4661686084,0.1497902547,0.1983629439,-0.2357155582,0.1152757558,0.8252976498,0.6051663555,-0.5904271063,0.9957370297,-0.584654315,-0.3105283307,-0.0303104053,1.0953703558,-0.1819435082,-0.21142104,0.4295650375,-0.4561329835,0.8545616531,0.7509236946,-0.1192579988,-0.5425156803,0.0388427434,-0.6541810885,-0.5187355911,0.3164750753,0.9510403828,0.4879296477,-0.1857650963,0.5702283997,0.0495322464,-0.6112847711,0.9562925581,0.5973930938,-0.2603848306,-0.6793262328,-0.6855877886,0.5562904837,-0.8452879017,-0.7462610269,-0.0728129932,-0.3929252503,0.8940324115,0.3857928455,-0.0627234698,0.4922188653,0.6582547905,-0.2596827986,-0.4009166809,-0.2535105077,0.1391715845,-0.6171181875,0.716339897,1.0357665669,0.8938377411,0.5980781736,0.4279253946,0.7617692072,-0.1288170554,1.0273899227,-0.8415799601,-0.6335079468,0.19838724,0.8982072792,-0.200943438,-0.2216521097,0.3345405851,-0.6891766947,-0.5060794533,-0.4415747273,-0.5658676915,0.1403780572,-0.0759667974,0.7142586302,0.5402393676,0.4121877589,0.8071432559,-0.1297805382,-0.1542712204,0.7590531629,-0.1098577934,0.4036003981,0.2993738029,-0.1423997957,0.0363105728,1.0059602903,0.3869230203,0.0891346142,-0.6625683606,0.723891232,0.8078244555,-0.5884530685,-0.4466029067,0.8730388345,-0.0416999349,-0.5140202221,0.3196256472,0.887382282,-0.4590134251,-0.3935099117,0.8587082545,1.0008207261,-0.3119817301,0.6112293437,0.6644038109,0.8144184122,-0.4184840359,0.5097780437,0.8716183316,-0.0406805985,0.1526600739,-0.627001498,0.64107017,-0.6615910807,0.0162358243,-0.657724606,-0.7792088238,0.273018366,0.6085466666,-0.6972772458,0.3608690411,0.5291019971,-0.3153049042,0.1061118475,0.3601877801,0.6408335712,-0.2049933824,0.2130030061,0.5197289498,0.3270203935,-0.7123985039,-0.8340020497,0.5017281825,0.7904659824,1.0436973652,1.1193477196,-0.7646672904,0.9139162005,-0.772154036,0.9537911288,0.5198306091,0.8885566636,0.018631124,0.4581515348,-0.808978982,0.297868938,-0.3973094236,0.8533493732,1.0338794498,0.3707648385,-0.4928681601,0.7029597935,-0.8019938764,-0.7441061555,0.0694406803,-0.6469844303,0.4574809206,0.5608238641,-0.8380697887,0.5706924465,0.1741004234,0.4252376185,-0.1654155062,-0.0341980673,-0.760718677,-0.3953163609,-0.1685482804,-0.5170940774,0.7156690045,-0.4337187705,1.1007726893,0.2221749508,0.8395019694,0.9587053888,0.6963473919,0.2339628666,0.572835046,0.773819825,0.1379276003,0.091176892,-0.4767786069,-0.5682810714,0.1508944406,-0.0072525739,-0.4326911706,0.4448429176,0.3172596812,0.8886230572,0.665202035,5.1934734628,7.7893830135,1.9173643821,6.831110665,1.0661821232,0.6589194765,0.5878313404,0.5867853438,0.2838831659,-0.1753867179,-0.527799789,1.4810960244,3.7293671243,0.9792262682,0.6569545863,0.1140655822,0.6246260518,-0.0093495755,1.2166945533,1.8968094858,-0.1895707431,0.8958421214,1.5652452808,2.663203125,0.2790290611,0.3254698535,1.3249026889,-14.6195633679
biasActivation=0,1
[BASIC:ACTIVATION]
"org.encog.engine.network.activation.ActivationElliott",1
"org.encog.engine.network.activation.ActivationLinear"
