encog,BasicNetwork,java,3.3.0,1,1467362450064
[BASIC]
[BASIC:PARAMS]
[BASIC:NETWORK]
beginTraining=0
connectionLimit=0
contextTargetOffset=0,0
contextTargetSize=0,0
endTraining=1
hasContext=f
inputCount=400
layerCounts=1,401
layerFeedCounts=1,400
layerContextCount=0,0
layerIndex=0,1
output=0,0,0,0,0,0,0,0,0,0,0,0,0,0,0,0,0,0,0,0,0,0,0,0,0,0,0,0,0,0,0,0,0,0,0,0,0,0,0,0,0,0,0,0,0,0,0,0,0,0,0,0,0,0,0,0,0,0,0,0,0,0,0,0,0,0,0,0,0,0,0,0,0,0,0,0,0,0,0,0,0,0,0,0,0,0,0,0,0,0,0,0,0,0,0,0,0,0,0,0,0,0,0,0,0,0,0,0,0,0,0,0,0,0,0,0,0,0,0,0,0,0,0,0,0,0,0,0,0,0,0,0,0,0,0,0,0,0,0,0,0,0,0,0,0,0,0,0,0,0,0,0,0,0,0,0,0,0,0,0,0,0,0,0,0,0,0,0,0,0,0,0,0,0,0,0,0,0,0,0,0,0,0,0,0,0,0,0,0,0,0,0,0,0,0,0,0,0,0,0,0,0,0,0,0,0,0,0,0,0,0,0,0,0,0,0,0,0,0,0,0,0,0,0,0,0,0,0,0,0,0,0,0,0,0,0,0,0,0,0,0,0,0,0,0,0,0,0,0,0,0,0,0,0,0,0,0,0,0,0,0,0,0,0,0,0,0,0,0,0,0,0,0,0,0,0,0,0,0,0,0,0,0,0,0,0,0,0,0,0,0,0,0,0,0,0,0,0,0,0,0,0,0,0,0,0,0,0,0,0,0,0,0,0,0,0,0,0,0,0,0,0,0,0,0,0,0,0,0,0,0,0,0,0,0,0,0,0,0,0,0,0,0,0,0,0,0,0,0,0,0,0,0,0,0,0,0,0,0,0,0,0,0,0,0,0,0,0,0,0,0,0,0,0,0,0,0,0,0,0,0,0,0,0,0,0,0,0,0,0,0,0,0,0,0,0,0,0,0,0,0,1
outputCount=1
weightIndex=0,401
weights=0.9020995472,1.112968274,0.9795806847,-0.1981587635,-1.3230515849,-0.3873233692,0.5129868707,-0.4399272397,-0.2939641844,-0.6378498122,-0.3240330735,-0.0282878082,-0.5953339842,-0.7103018572,-1.1320104283,0.1629113951,6.1840946052,-0.5392952644,-1.0836101314,-0.4631307134,-1.1409306042,0.7268257957,0.3775904876,-0.3849548858,-0.761965031,0.9582057012,-0.0874258501,-0.5254195118,1.104635546,-0.1452689673,0.3359982252,-0.4761636641,-0.0957875582,0.6881165272,-0.0187255322,-0.1666174828,0.4178804204,1.0607963605,-0.5406228162,1.0895245354,0.9038810493,1.7126539473,2.1800330679,-0.4853208824,0.4300929493,0.0695487393,-0.0125829743,-0.2266377013,0.9291212551,0.7693515611,-0.9772884777,-0.8390255167,1.0162907591,-0.1992538064,1.4790451419,1.8620695069,-0.6752093899,-0.9942901506,-1.1294197346,-0.452562893,-0.5409599174,0.0953979965,-0.5325671955,-0.441787742,-0.9076863164,-0.7694506887,0.6349464602,0.3284496296,0.5798229313,0.1740787955,0.8064934834,-0.4560188194,-0.767691777,0.0808031826,-0.0672196933,0.4240050589,0.2762613926,1.0436833374,-0.7004354096,-0.2933507766,0.1153734035,-0.663038859,0.7913827976,0.7800188081,1.0719860512,2.3229786655,0.8109449893,0.1838457763,0.5274834489,-0.2854416514,0.7587918265,-0.0035527405,-0.3723606355,0.282509867,1.1100620072,0.5674534871,0.3435221619,0.0003668426,-0.7067660242,0.7116616718,0.0885333585,-1.7582296988,-0.980909351,0.3606585526,-0.0650137246,-0.0107050683,0.0424292126,0.3037787885,0.4289884583,-0.7989095597,-0.0236362513,-0.5168671048,-0.5037539139,-1.295330299,1.058541732,1.041173796,-0.1814601251,0.2764070027,-0.8593740305,-0.4942955021,-0.7892045537,0.6709139796,-0.5734308796,-0.2537538528,0.1973533509,-1.0091020481,-0.3218448523,-0.5300009902,-0.867947741,0.4459474834,0.7875313574,-0.0351209544,0.5921530298,-0.1652531976,-0.65806977,-1.0487903125,-0.7957631295,-1.5434239059,-0.1976096572,0.1852527913,0.0880784797,-0.1884337632,-0.4962953845,-0.0432172128,0.0275069401,-8.1106992811,-0.7537367333,-0.534685625,0.2038456319,-0.247429069,-1.4576136427,-1.2893937323,0.9052325288,-0.4822579098,-2.5526911552,-8.1053966883,-0.9464691773,0.192643989,0.6481812181,-0.9274120279,0.5882012068,-0.0613163686,-0.5093004832,0.9105579965,0.7836897835,-1.1087894082,-0.6158423691,-0.1656940773,1.8943117658,0.4452345922,1.4538951347,6.6089325626,0.3784605984,-0.1294820776,-1.0060772522,-0.4920450691,-1.6625138377,0.0301678557,-1.4559080885,-0.1393048644,-1.0388239345,0.0896301789,-0.0748276014,-1.2333112367,-0.943292702,0.5304552122,-4.3219253481,-1.0866878772,-0.2548409588,-3.1740879171,-0.6315474255,0.7682273133,-0.284974528,-0.5858735335,0.8431340063,-0.7782198201,-0.8837607273,-0.1913953365,-4.6939277527,-3.970628491,-1.2643879248,-0.2037978468,0.3630980824,-0.2244880706,0.7965119456,-0.6223382251,-0.5626172305,-0.9560243945,0.6265795087,-0.2093922319,-0.5844026068,0.7181640415,0.9619120819,-0.5317073448,2.9047437578,-0.1613875597,0.8963985401,-1.3762138768,0.252344127,-0.847842575,-1.2727903031,-0.2322299553,-1.7641889609,-1.233559184,-3.7447170345,-1.0146546765,0.0787862579,0.4068390179,0.1775213587,-0.9310445829,0.8528309903,0.9013720151,-0.4895077282,-0.0002786591,0.7741184664,0.5582608823,0.4777862885,1.0229191001,-0.9441699502,-3.7142135181,-1.0062553884,0.8210559546,0.5469448587,-1.7694601242,-4.6756170159,-1.423400747,-0.073569149,-0.4663825289,-0.6597301594,-0.8092495624,-0.5185159725,0.1605861347,0.6475821199,0.4756070375,0.8399158486,0.5865715461,0.1727239523,0.7099736886,-0.2195995983,-0.1593118711,-0.1652801661,-0.1231322061,-1.6128218336,-0.7099445479,-1.5762395588,-1.5083025336,-0.180037691,-1.8280953323,-0.631004877,-1.6454862193,-6.2695934869,-0.1570713786,1.1893002825,-0.0881911192,0.6735280975,0.1420364782,-0.109815181,-0.4815288205,-10.2187778634,-0.3109369833,0.5660855621,-0.740770203,-1.2543960621,-3.5231193127,0.5433988982,-2.4592615378,0.4413237462,0.5544010152,-0.3364092399,-3.0454628388,-6.4938119066,-0.7980636203,-11.6427500357,-0.5901648932,-0.5222537183,-0.4701266918,-0.5873468469,0.0353161319,-5.5834412446,-0.4267280764,-0.7801978803,-0.2499194271,-0.3317972405,0.1089472464,-0.5101850901,-1.4055319478,-0.5539016474,-1.786996315,-1.5668368248,-0.8351733312,-1.0134256194,-0.1643825646,1.2310253685,2.2413401128,0.6100053674,0.2711763043,1.0654810821,0.7704435822,-0.3063898239,1.0513519611,5.8738088288,5.6659383052,1.6384940814,0.1403219846,0.4542408513,-0.0620467112,-0.2837498706,0.4999904854,-1.0613318239,-2.2044367787,-13.2182386956,-0.6610206883,-12.1533382282,-1.1607473976,0.3469482091,-3.8016358525,-8.9592244294,-14.7627332196,-2.4750712696,-5.2304215624,-0.7861639543,-0.0178650915,-0.2121747922,0.4204796046,-0.1698606396,-1.3216905388,-0.2582794173,-1.4716164213,-1.5200661834,-1.5683670045,-0.9294837843,-2.0147747605,-0.2352181285,-4.0858467383,-2.4141389642,1.1329192424,0.97863684,0.0655345929,1.1428100212,3.2606087376,2.4061000552,6.7140222452,0.8309090581,17.451114385,8.4301564736,20.1003761758,8.0231903038,12.6621480966,3.6697205309,50.9292400183,2.4489097728,2.0704279908,0.3178834041,1.8451034791,1.506712234,6.0017537576,0.1455037566,-0.029753803,-0.2365482023,0.4348659249,0.1215964559,-1.3286759015,0.2783963167,-0.8931097155,-0.3925698464,0.8074290229,-0.702445482,-4.9405683337,-0.6080676533,0.0846911583,-1.3980341012,-0.451456925,-1.5207085313,-1.4207098538,-3.7215522299,-1.1334466574,-0.3483865765,1.8167799505,6.385675424,1.1244380195,6.9323675582
biasActivation=0,1
[BASIC:ACTIVATION]
"org.encog.engine.network.activation.ActivationElliott",1
"org.encog.engine.network.activation.ActivationLinear"
